digraph Tree {
node [shape=box] ;
0 [label="irradiat <= 0.5\ngini = 0.412\nsamples = 207\nvalue = [147, 60]"] ;
1 [label="nodes-caps <= 0.5\ngini = 0.345\nsamples = 158\nvalue = [123, 35]"] ;
0 -> 1 [labeldistance=2.5, labelangle=45, headlabel="True"] ;
2 [label="gini = 0.313\nsamples = 139\nvalue = [112, 27]"] ;
1 -> 2 ;
3 [label="gini = 0.488\nsamples = 19\nvalue = [11, 8]"] ;
1 -> 3 ;
4 [label="nodes-caps <= 0.5\ngini = 0.5\nsamples = 49\nvalue = [24, 25]"] ;
0 -> 4 [labeldistance=2.5, labelangle=-45, headlabel="False"] ;
5 [label="gini = 0.494\nsamples = 27\nvalue = [15, 12]"] ;
4 -> 5 ;
6 [label="gini = 0.483\nsamples = 22\nvalue = [9, 13]"] ;
4 -> 6 ;
}