digraph Tree {
node [shape=box] ;
0 [label="deg-malig <= 1.5\ngini = 0.412\nsamples = 207\nvalue = [147, 60]"] ;
1 [label="tumor-size <= 2.5\ngini = 0.322\nsamples = 149\nvalue = [119, 30]"] ;
0 -> 1 [labeldistance=2.5, labelangle=45, headlabel="True"] ;
2 [label="age <= 1.5\ngini = 0.089\nsamples = 43\nvalue = [41, 2]"] ;
1 -> 2 ;
3 [label="breast-quad <= 0.5\ngini = 0.444\nsamples = 3\nvalue = [2, 1]"] ;
2 -> 3 ;
4 [label="gini = 0.0\nsamples = 1\nvalue = [0, 1]"] ;
3 -> 4 ;
5 [label="gini = 0.0\nsamples = 2\nvalue = [2, 0]"] ;
3 -> 5 ;
6 [label="menopause <= 1.5\ngini = 0.049\nsamples = 40\nvalue = [39, 1]"] ;
2 -> 6 ;
7 [label="gini = 0.0\nsamples = 26\nvalue = [26, 0]"] ;
6 -> 7 ;
8 [label="tumor-size <= 1.5\ngini = 0.133\nsamples = 14\nvalue = [13, 1]"] ;
6 -> 8 ;
9 [label="gini = 0.0\nsamples = 10\nvalue = [10, 0]"] ;
8 -> 9 ;
10 [label="age <= 2.5\ngini = 0.375\nsamples = 4\nvalue = [3, 1]"] ;
8 -> 10 ;
11 [label="gini = 0.0\nsamples = 1\nvalue = [1, 0]"] ;
10 -> 11 ;
12 [label="deg-malig <= 0.5\ngini = 0.444\nsamples = 3\nvalue = [2, 1]"] ;
10 -> 12 ;
13 [label="gini = 0.0\nsamples = 1\nvalue = [1, 0]"] ;
12 -> 13 ;
14 [label="breast <= 0.5\ngini = 0.5\nsamples = 2\nvalue = [1, 1]"] ;
12 -> 14 ;
15 [label="gini = 0.0\nsamples = 1\nvalue = [0, 1]"] ;
14 -> 15 ;
16 [label="gini = 0.0\nsamples = 1\nvalue = [1, 0]"] ;
14 -> 16 ;
17 [label="irradiat <= 0.5\ngini = 0.389\nsamples = 106\nvalue = [78, 28]"] ;
1 -> 17 ;
18 [label="tumor-size <= 8.0\ngini = 0.34\nsamples = 83\nvalue = [65, 18]"] ;
17 -> 18 ;
19 [label="inv-nodes <= 4.5\ngini = 0.352\nsamples = 79\nvalue = [61, 18]"] ;
18 -> 19 ;
20 [label="breast-quad <= 3.5\ngini = 0.361\nsamples = 76\nvalue = [58, 18]"] ;
19 -> 20 ;
21 [label="age <= 2.5\ngini = 0.338\nsamples = 65\nvalue = [51, 14]"] ;
20 -> 21 ;
22 [label="breast-quad <= 2.5\ngini = 0.404\nsamples = 32\nvalue = [23, 9]"] ;
21 -> 22 ;
23 [label="breast-quad <= 0.5\ngini = 0.444\nsamples = 27\nvalue = [18, 9]"] ;
22 -> 23 ;
24 [label="gini = 0.0\nsamples = 3\nvalue = [3, 0]"] ;
23 -> 24 ;
25 [label="age <= 1.5\ngini = 0.469\nsamples = 24\nvalue = [15, 9]"] ;
23 -> 25 ;
26 [label="deg-malig <= 0.5\ngini = 0.5\nsamples = 6\nvalue = [3, 3]"] ;
25 -> 26 ;
27 [label="gini = 0.0\nsamples = 1\nvalue = [0, 1]"] ;
26 -> 27 ;
28 [label="nodes-caps <= 0.5\ngini = 0.48\nsamples = 5\nvalue = [3, 2]"] ;
26 -> 28 ;
29 [label="tumor-size <= 4.5\ngini = 0.375\nsamples = 4\nvalue = [3, 1]"] ;
28 -> 29 ;
30 [label="gini = 0.0\nsamples = 2\nvalue = [2, 0]"] ;
29 -> 30 ;
31 [label="gini = 0.5\nsamples = 2\nvalue = [1, 1]"] ;
29 -> 31 ;
32 [label="gini = 0.0\nsamples = 1\nvalue = [0, 1]"] ;
28 -> 32 ;
33 [label="inv-nodes <= 2.0\ngini = 0.444\nsamples = 18\nvalue = [12, 6]"] ;
25 -> 33 ;
34 [label="breast-quad <= 1.5\ngini = 0.469\nsamples = 16\nvalue = [10, 6]"] ;
33 -> 34 ;
35 [label="menopause <= 1.0\ngini = 0.494\nsamples = 9\nvalue = [5, 4]"] ;
34 -> 35 ;
36 [label="gini = 0.0\nsamples = 1\nvalue = [1, 0]"] ;
35 -> 36 ;
37 [label="tumor-size <= 3.5\ngini = 0.5\nsamples = 8\nvalue = [4, 4]"] ;
35 -> 37 ;
38 [label="deg-malig <= 0.5\ngini = 0.444\nsamples = 3\nvalue = [2, 1]"] ;
37 -> 38 ;
39 [label="gini = 0.0\nsamples = 1\nvalue = [1, 0]"] ;
38 -> 39 ;
40 [label="gini = 0.5\nsamples = 2\nvalue = [1, 1]"] ;
38 -> 40 ;
41 [label="breast <= 0.5\ngini = 0.48\nsamples = 5\nvalue = [2, 3]"] ;
37 -> 41 ;
42 [label="gini = 0.0\nsamples = 1\nvalue = [0, 1]"] ;
41 -> 42 ;
43 [label="tumor-size <= 5.5\ngini = 0.5\nsamples = 4\nvalue = [2, 2]"] ;
41 -> 43 ;
44 [label="gini = 0.444\nsamples = 3\nvalue = [1, 2]"] ;
43 -> 44 ;
45 [label="gini = 0.0\nsamples = 1\nvalue = [1, 0]"] ;
43 -> 45 ;
46 [label="menopause <= 1.0\ngini = 0.408\nsamples = 7\nvalue = [5, 2]"] ;
34 -> 46 ;
47 [label="gini = 0.0\nsamples = 1\nvalue = [0, 1]"] ;
46 -> 47 ;
48 [label="tumor-size <= 5.5\ngini = 0.278\nsamples = 6\nvalue = [5, 1]"] ;
46 -> 48 ;
49 [label="gini = 0.0\nsamples = 4\nvalue = [4, 0]"] ;
48 -> 49 ;
50 [label="tumor-size <= 6.5\ngini = 0.5\nsamples = 2\nvalue = [1, 1]"] ;
48 -> 50 ;
51 [label="gini = 0.0\nsamples = 1\nvalue = [0, 1]"] ;
50 -> 51 ;
52 [label="gini = 0.0\nsamples = 1\nvalue = [1, 0]"] ;
50 -> 52 ;
53 [label="gini = 0.0\nsamples = 2\nvalue = [2, 0]"] ;
33 -> 53 ;
54 [label="gini = 0.0\nsamples = 5\nvalue = [5, 0]"] ;
22 -> 54 ;
55 [label="breast-quad <= 0.5\ngini = 0.257\nsamples = 33\nvalue = [28, 5]"] ;
21 -> 55 ;
56 [label="deg-malig <= 0.5\ngini = 0.5\nsamples = 2\nvalue = [1, 1]"] ;
55 -> 56 ;
57 [label="gini = 0.0\nsamples = 1\nvalue = [1, 0]"] ;
56 -> 57 ;
58 [label="gini = 0.0\nsamples = 1\nvalue = [0, 1]"] ;
56 -> 58 ;
59 [label="tumor-size <= 5.5\ngini = 0.225\nsamples = 31\nvalue = [27, 4]"] ;
55 -> 59 ;
60 [label="breast-quad <= 1.5\ngini = 0.159\nsamples = 23\nvalue = [21, 2]"] ;
59 -> 60 ;
61 [label="gini = 0.0\nsamples = 11\nvalue = [11, 0]"] ;
60 -> 61 ;
62 [label="age <= 3.5\ngini = 0.278\nsamples = 12\nvalue = [10, 2]"] ;
60 -> 62 ;
63 [label="nodes-caps <= 0.5\ngini = 0.375\nsamples = 8\nvalue = [6, 2]"] ;
62 -> 63 ;
64 [label="tumor-size <= 4.5\ngini = 0.444\nsamples = 6\nvalue = [4, 2]"] ;
63 -> 64 ;
65 [label="breast <= 0.5\ngini = 0.48\nsamples = 5\nvalue = [3, 2]"] ;
64 -> 65 ;
66 [label="gini = 0.0\nsamples = 1\nvalue = [0, 1]"] ;
65 -> 66 ;
67 [label="menopause <= 1.0\ngini = 0.375\nsamples = 4\nvalue = [3, 1]"] ;
65 -> 67 ;
68 [label="gini = 0.0\nsamples = 2\nvalue = [2, 0]"] ;
67 -> 68 ;
69 [label="gini = 0.5\nsamples = 2\nvalue = [1, 1]"] ;
67 -> 69 ;
70 [label="gini = 0.0\nsamples = 1\nvalue = [1, 0]"] ;
64 -> 70 ;
71 [label="gini = 0.0\nsamples = 2\nvalue = [2, 0]"] ;
63 -> 71 ;
72 [label="gini = 0.0\nsamples = 4\nvalue = [4, 0]"] ;
62 -> 72 ;
73 [label="breast-quad <= 1.5\ngini = 0.375\nsamples = 8\nvalue = [6, 2]"] ;
59 -> 73 ;
74 [label="nodes-caps <= 0.5\ngini = 0.5\nsamples = 4\nvalue = [2, 2]"] ;
73 -> 74 ;
75 [label="tumor-size <= 6.5\ngini = 0.444\nsamples = 3\nvalue = [1, 2]"] ;
74 -> 75 ;
76 [label="gini = 0.0\nsamples = 1\nvalue = [0, 1]"] ;
75 -> 76 ;
77 [label="age <= 3.5\ngini = 0.5\nsamples = 2\nvalue = [1, 1]"] ;
75 -> 77 ;
78 [label="gini = 0.0\nsamples = 1\nvalue = [1, 0]"] ;
77 -> 78 ;
79 [label="gini = 0.0\nsamples = 1\nvalue = [0, 1]"] ;
77 -> 79 ;
80 [label="gini = 0.0\nsamples = 1\nvalue = [1, 0]"] ;
74 -> 80 ;
81 [label="gini = 0.0\nsamples = 4\nvalue = [4, 0]"] ;
73 -> 81 ;
82 [label="inv-nodes <= 2.0\ngini = 0.463\nsamples = 11\nvalue = [7, 4]"] ;
20 -> 82 ;
83 [label="age <= 2.5\ngini = 0.346\nsamples = 9\nvalue = [7, 2]"] ;
82 -> 83 ;
84 [label="gini = 0.0\nsamples = 6\nvalue = [6, 0]"] ;
83 -> 84 ;
85 [label="age <= 4.0\ngini = 0.444\nsamples = 3\nvalue = [1, 2]"] ;
83 -> 85 ;
86 [label="gini = 0.0\nsamples = 2\nvalue = [0, 2]"] ;
85 -> 86 ;
87 [label="gini = 0.0\nsamples = 1\nvalue = [1, 0]"] ;
85 -> 87 ;
88 [label="gini = 0.0\nsamples = 2\nvalue = [0, 2]"] ;
82 -> 88 ;
89 [label="gini = 0.0\nsamples = 3\nvalue = [3, 0]"] ;
19 -> 89 ;
90 [label="gini = 0.0\nsamples = 4\nvalue = [4, 0]"] ;
18 -> 90 ;
91 [label="breast-quad <= 1.5\ngini = 0.491\nsamples = 23\nvalue = [13, 10]"] ;
17 -> 91 ;
92 [label="inv-nodes <= 2.0\ngini = 0.444\nsamples = 9\nvalue = [3, 6]"] ;
91 -> 92 ;
93 [label="age <= 1.5\ngini = 0.5\nsamples = 6\nvalue = [3, 3]"] ;
92 -> 93 ;
94 [label="gini = 0.0\nsamples = 1\nvalue = [1, 0]"] ;
93 -> 94 ;
95 [label="tumor-size <= 9.0\ngini = 0.48\nsamples = 5\nvalue = [2, 3]"] ;
93 -> 95 ;
96 [label="breast <= 0.5\ngini = 0.5\nsamples = 4\nvalue = [2, 2]"] ;
95 -> 96 ;
97 [label="tumor-size <= 6.5\ngini = 0.444\nsamples = 3\nvalue = [1, 2]"] ;
96 -> 97 ;
98 [label="gini = 0.0\nsamples = 2\nvalue = [0, 2]"] ;
97 -> 98 ;
99 [label="gini = 0.0\nsamples = 1\nvalue = [1, 0]"] ;
97 -> 99 ;
100 [label="gini = 0.0\nsamples = 1\nvalue = [1, 0]"] ;
96 -> 100 ;
101 [label="gini = 0.0\nsamples = 1\nvalue = [0, 1]"] ;
95 -> 101 ;
102 [label="gini = 0.0\nsamples = 3\nvalue = [0, 3]"] ;
92 -> 102 ;
103 [label="breast-quad <= 3.0\ngini = 0.408\nsamples = 14\nvalue = [10, 4]"] ;
91 -> 103 ;
104 [label="inv-nodes <= 5.5\ngini = 0.198\nsamples = 9\nvalue = [8, 1]"] ;
103 -> 104 ;
105 [label="gini = 0.0\nsamples = 7\nvalue = [7, 0]"] ;
104 -> 105 ;
106 [label="age <= 1.5\ngini = 0.5\nsamples = 2\nvalue = [1, 1]"] ;
104 -> 106 ;
107 [label="gini = 0.0\nsamples = 1\nvalue = [0, 1]"] ;
106 -> 107 ;
108 [label="gini = 0.0\nsamples = 1\nvalue = [1, 0]"] ;
106 -> 108 ;
109 [label="menopause <= 1.0\ngini = 0.48\nsamples = 5\nvalue = [2, 3]"] ;
103 -> 109 ;
110 [label="gini = 0.0\nsamples = 2\nvalue = [0, 2]"] ;
109 -> 110 ;
111 [label="tumor-size <= 4.0\ngini = 0.444\nsamples = 3\nvalue = [2, 1]"] ;
109 -> 111 ;
112 [label="gini = 0.0\nsamples = 1\nvalue = [0, 1]"] ;
111 -> 112 ;
113 [label="gini = 0.0\nsamples = 2\nvalue = [2, 0]"] ;
111 -> 113 ;
114 [label="inv-nodes <= 0.5\ngini = 0.499\nsamples = 58\nvalue = [28, 30]"] ;
0 -> 114 [labeldistance=2.5, labelangle=-45, headlabel="False"] ;
115 [label="tumor-size <= 3.5\ngini = 0.451\nsamples = 32\nvalue = [21, 11]"] ;
114 -> 115 ;
116 [label="tumor-size <= 2.5\ngini = 0.278\nsamples = 12\nvalue = [10, 2]"] ;
115 -> 116 ;
117 [label="gini = 0.0\nsamples = 4\nvalue = [4, 0]"] ;
116 -> 117 ;
118 [label="irradiat <= 0.5\ngini = 0.375\nsamples = 8\nvalue = [6, 2]"] ;
116 -> 118 ;
119 [label="breast <= 0.5\ngini = 0.278\nsamples = 6\nvalue = [5, 1]"] ;
118 -> 119 ;
120 [label="gini = 0.0\nsamples = 5\nvalue = [5, 0]"] ;
119 -> 120 ;
121 [label="gini = 0.0\nsamples = 1\nvalue = [0, 1]"] ;
119 -> 121 ;
122 [label="age <= 1.5\ngini = 0.5\nsamples = 2\nvalue = [1, 1]"] ;
118 -> 122 ;
123 [label="gini = 0.0\nsamples = 1\nvalue = [0, 1]"] ;
122 -> 123 ;
124 [label="gini = 0.0\nsamples = 1\nvalue = [1, 0]"] ;
122 -> 124 ;
125 [label="tumor-size <= 6.5\ngini = 0.495\nsamples = 20\nvalue = [11, 9]"] ;
115 -> 125 ;
126 [label="nodes-caps <= 0.5\ngini = 0.5\nsamples = 18\nvalue = [9, 9]"] ;
125 -> 126 ;
127 [label="irradiat <= 0.5\ngini = 0.492\nsamples = 16\nvalue = [7, 9]"] ;
126 -> 127 ;
128 [label="age <= 2.5\ngini = 0.497\nsamples = 13\nvalue = [7, 6]"] ;
127 -> 128 ;
129 [label="breast-quad <= 3.0\ngini = 0.408\nsamples = 7\nvalue = [2, 5]"] ;
128 -> 129 ;
130 [label="tumor-size <= 5.5\ngini = 0.48\nsamples = 5\nvalue = [2, 3]"] ;
129 -> 130 ;
131 [label="tumor-size <= 4.5\ngini = 0.444\nsamples = 3\nvalue = [2, 1]"] ;
130 -> 131 ;
132 [label="gini = 0.0\nsamples = 1\nvalue = [0, 1]"] ;
131 -> 132 ;
133 [label="gini = 0.0\nsamples = 2\nvalue = [2, 0]"] ;
131 -> 133 ;
134 [label="gini = 0.0\nsamples = 2\nvalue = [0, 2]"] ;
130 -> 134 ;
135 [label="gini = 0.0\nsamples = 2\nvalue = [0, 2]"] ;
129 -> 135 ;
136 [label="age <= 3.5\ngini = 0.278\nsamples = 6\nvalue = [5, 1]"] ;
128 -> 136 ;
137 [label="gini = 0.0\nsamples = 4\nvalue = [4, 0]"] ;
136 -> 137 ;
138 [label="breast <= 0.5\ngini = 0.5\nsamples = 2\nvalue = [1, 1]"] ;
136 -> 138 ;
139 [label="gini = 0.0\nsamples = 1\nvalue = [0, 1]"] ;
138 -> 139 ;
140 [label="gini = 0.0\nsamples = 1\nvalue = [1, 0]"] ;
138 -> 140 ;
141 [label="gini = 0.0\nsamples = 3\nvalue = [0, 3]"] ;
127 -> 141 ;
142 [label="gini = 0.0\nsamples = 2\nvalue = [2, 0]"] ;
126 -> 142 ;
143 [label="gini = 0.0\nsamples = 2\nvalue = [2, 0]"] ;
125 -> 143 ;
144 [label="breast <= 0.5\ngini = 0.393\nsamples = 26\nvalue = [7, 19]"] ;
114 -> 144 ;
145 [label="tumor-size <= 7.5\ngini = 0.208\nsamples = 17\nvalue = [2, 15]"] ;
144 -> 145 ;
146 [label="nodes-caps <= 0.5\ngini = 0.117\nsamples = 16\nvalue = [1, 15]"] ;
145 -> 146 ;
147 [label="tumor-size <= 5.5\ngini = 0.444\nsamples = 3\nvalue = [1, 2]"] ;
146 -> 147 ;
148 [label="gini = 0.0\nsamples = 2\nvalue = [0, 2]"] ;
147 -> 148 ;
149 [label="gini = 0.0\nsamples = 1\nvalue = [1, 0]"] ;
147 -> 149 ;
150 [label="gini = 0.0\nsamples = 13\nvalue = [0, 13]"] ;
146 -> 150 ;
151 [label="gini = 0.0\nsamples = 1\nvalue = [1, 0]"] ;
145 -> 151 ;
152 [label="tumor-size <= 4.5\ngini = 0.494\nsamples = 9\nvalue = [5, 4]"] ;
144 -> 152 ;
153 [label="gini = 0.0\nsamples = 3\nvalue = [3, 0]"] ;
152 -> 153 ;
154 [label="tumor-size <= 6.5\ngini = 0.444\nsamples = 6\nvalue = [2, 4]"] ;
152 -> 154 ;
155 [label="gini = 0.0\nsamples = 4\nvalue = [0, 4]"] ;
154 -> 155 ;
156 [label="gini = 0.0\nsamples = 2\nvalue = [2, 0]"] ;
154 -> 156 ;
}