digraph Tree {
node [shape=box] ;
0 [label="irradiat <= 0.5\ngini = 0.412\nsamples = 207\nvalue = [147, 60]"] ;
1 [label="tumor-size <= 2.5\ngini = 0.345\nsamples = 158\nvalue = [123, 35]"] ;
0 -> 1 [labeldistance=2.5, labelangle=45, headlabel="True"] ;
2 [label="tumor-size <= 0.5\ngini = 0.13\nsamples = 43\nvalue = [40, 3]"] ;
1 -> 2 ;
3 [label="gini = 0.32\nsamples = 5\nvalue = [4, 1]"] ;
2 -> 3 ;
4 [label="tumor-size <= 1.5\ngini = 0.1\nsamples = 38\nvalue = [36, 2]"] ;
2 -> 4 ;
5 [label="gini = 0.0\nsamples = 21\nvalue = [21, 0]"] ;
4 -> 5 ;
6 [label="gini = 0.208\nsamples = 17\nvalue = [15, 2]"] ;
4 -> 6 ;
7 [label="tumor-size <= 6.5\ngini = 0.402\nsamples = 115\nvalue = [83, 32]"] ;
1 -> 7 ;
8 [label="tumor-size <= 5.5\ngini = 0.425\nsamples = 98\nvalue = [68, 30]"] ;
7 -> 8 ;
9 [label="tumor-size <= 3.5\ngini = 0.395\nsamples = 85\nvalue = [62, 23]"] ;
8 -> 9 ;
10 [label="gini = 0.328\nsamples = 29\nvalue = [23, 6]"] ;
9 -> 10 ;
11 [label="tumor-size <= 4.5\ngini = 0.423\nsamples = 56\nvalue = [39, 17]"] ;
9 -> 11 ;
12 [label="gini = 0.42\nsamples = 30\nvalue = [21, 9]"] ;
11 -> 12 ;
13 [label="gini = 0.426\nsamples = 26\nvalue = [18, 8]"] ;
11 -> 13 ;
14 [label="gini = 0.497\nsamples = 13\nvalue = [6, 7]"] ;
8 -> 14 ;
15 [label="tumor-size <= 7.5\ngini = 0.208\nsamples = 17\nvalue = [15, 2]"] ;
7 -> 15 ;
16 [label="gini = 0.278\nsamples = 12\nvalue = [10, 2]"] ;
15 -> 16 ;
17 [label="gini = 0.0\nsamples = 5\nvalue = [5, 0]"] ;
15 -> 17 ;
18 [label="tumor-size <= 5.5\ngini = 0.5\nsamples = 49\nvalue = [24, 25]"] ;
0 -> 18 [labeldistance=2.5, labelangle=-45, headlabel="False"] ;
19 [label="tumor-size <= 2.5\ngini = 0.467\nsamples = 35\nvalue = [13, 22]"] ;
18 -> 19 ;
20 [label="tumor-size <= 1.5\ngini = 0.375\nsamples = 8\nvalue = [6, 2]"] ;
19 -> 20 ;
21 [label="gini = 0.444\nsamples = 3\nvalue = [2, 1]"] ;
20 -> 21 ;
22 [label="gini = 0.32\nsamples = 5\nvalue = [4, 1]"] ;
20 -> 22 ;
23 [label="tumor-size <= 4.5\ngini = 0.384\nsamples = 27\nvalue = [7, 20]"] ;
19 -> 23 ;
24 [label="tumor-size <= 3.5\ngini = 0.43\nsamples = 16\nvalue = [5, 11]"] ;
23 -> 24 ;
25 [label="gini = 0.444\nsamples = 6\nvalue = [2, 4]"] ;
24 -> 25 ;
26 [label="gini = 0.42\nsamples = 10\nvalue = [3, 7]"] ;
24 -> 26 ;
27 [label="gini = 0.298\nsamples = 11\nvalue = [2, 9]"] ;
23 -> 27 ;
28 [label="tumor-size <= 7.5\ngini = 0.337\nsamples = 14\nvalue = [11, 3]"] ;
18 -> 28 ;
29 [label="tumor-size <= 6.5\ngini = 0.18\nsamples = 10\nvalue = [9, 1]"] ;
28 -> 29 ;
30 [label="gini = 0.0\nsamples = 4\nvalue = [4, 0]"] ;
29 -> 30 ;
31 [label="gini = 0.278\nsamples = 6\nvalue = [5, 1]"] ;
29 -> 31 ;
32 [label="tumor-size <= 9.0\ngini = 0.5\nsamples = 4\nvalue = [2, 2]"] ;
28 -> 32 ;
33 [label="gini = 0.5\nsamples = 2\nvalue = [1, 1]"] ;
32 -> 33 ;
34 [label="gini = 0.5\nsamples = 2\nvalue = [1, 1]"] ;
32 -> 34 ;
}